[
    {
        "type": "conv2d",
        "params": {
            "kernel": [
                [
                    [
                        [
                            -0.010060888715088367,
                            0.054799944162368774,
                            -0.10676467418670654,
                            0.03763749077916145,
                            0.04044543579220772,
                            0.058277156203985214,
                            -0.17318488657474518,
                            0.18201792240142822
                        ],
                        [
                            -0.1097356304526329,
                            0.1124105304479599,
                            0.2018648386001587,
                            0.024292780086398125,
                            -0.14646731317043304,
                            -0.04285527020692825,
                            -0.17986363172531128,
                            0.034287966787815094
                        ],
                        [
                            -0.007182763423770666,
                            -0.020510755479335785,
                            -0.006052665412425995,
                            0.0762752965092659,
                            -0.1800125539302826,
                            -0.15517652034759521,
                            0.22247256338596344,
                            -0.00031292097992263734
                        ]
                    ],
                    [
                        [
                            0.21731287240982056,
                            0.008905336260795593,
                            0.06809359043836594,
                            0.23784320056438446,
                            0.013932024128735065,
                            -0.23347386717796326,
                            0.1613004356622696,
                            0.007144111208617687
                        ],
                        [
                            0.18479925394058228,
                            -0.11286889761686325,
                            0.1954784244298935,
                            0.24800924956798553,
                            -0.17661932110786438,
                            -0.03421555459499359,
                            0.021826565265655518,
                            -0.03108147159218788
                        ],
                        [
                            -0.022881019860506058,
                            -0.20960676670074463,
                            -0.13286931812763214,
                            0.053797777742147446,
                            -0.04512500762939453,
                            0.23198005557060242,
                            0.28576818108558655,
                            0.2771362066268921
                        ]
                    ],
                    [
                        [
                            0.07864519208669662,
                            0.20136283338069916,
                            -0.03182525187730789,
                            0.2936159670352936,
                            -0.00467198621481657,
                            -0.2056635171175003,
                            0.16329866647720337,
                            -0.18398278951644897
                        ],
                        [
                            0.11295697838068008,
                            0.24719971418380737,
                            0.18668942153453827,
                            0.2357063740491867,
                            -0.06354918330907822,
                            0.12149960547685623,
                            0.06418421864509583,
                            -0.04709680750966072
                        ],
                        [
                            0.05187254771590233,
                            -0.21343840658664703,
                            0.07749342173337936,
                            0.062275294214487076,
                            0.04774801433086395,
                            -0.21452535688877106,
                            0.1795845478773117,
                            0.03584015741944313
                        ]
                    ]
                ],
                [
                    [
                        [
                            0.14057642221450806,
                            0.13858133554458618,
                            0.037785351276397705,
                            0.07621266692876816,
                            -0.1825850009918213,
                            -1.4857389032840729e-05,
                            0.21126152575016022,
                            -0.07457008957862854
                        ],
                        [
                            -0.020776815712451935,
                            -0.16542251408100128,
                            0.05268094316124916,
                            0.0443643257021904,
                            0.06644551455974579,
                            0.21189139783382416,
                            -0.10364919900894165,
                            -0.14870789647102356
                        ],
                        [
                            0.009702575393021107,
                            -0.05431195721030235,
                            -0.20385734736919403,
                            0.20637238025665283,
                            0.12608161568641663,
                            0.1483583003282547,
                            0.07218527793884277,
                            0.22004543244838715
                        ]
                    ],
                    [
                        [
                            0.03945503756403923,
                            0.059054937213659286,
                            0.03492450714111328,
                            0.12448956072330475,
                            -0.10712849348783493,
                            0.09280088543891907,
                            -0.053149424493312836,
                            -0.1574646532535553
                        ],
                        [
                            -0.19264939427375793,
                            -0.11060263961553574,
                            -0.025287862867116928,
                            0.18014302849769592,
                            -0.015516486018896103,
                            -0.0035719648003578186,
                            -0.06826318800449371,
                            0.005560588091611862
                        ],
                        [
                            -0.03135835751891136,
                            -0.15071149170398712,
                            -0.23593288660049438,
                            0.09133760631084442,
                            -0.027283845469355583,
                            -0.15194523334503174,
                            0.05560816824436188,
                            0.2917061150074005
                        ]
                    ],
                    [
                        [
                            -0.012641736306250095,
                            -0.08545195311307907,
                            0.2456270456314087,
                            0.21249134838581085,
                            -0.21302971243858337,
                            -0.07904831320047379,
                            -0.10949583351612091,
                            0.11858852207660675
                        ],
                        [
                            0.18756148219108582,
                            -0.011740440502762794,
                            -0.1073642149567604,
                            -0.1446562558412552,
                            -0.09989209473133087,
                            -0.1729149967432022,
                            -0.09040334075689316,
                            0.11169496178627014
                        ],
                        [
                            0.010455307550728321,
                            -0.2044176310300827,
                            -0.06320660561323166,
                            0.14278848469257355,
                            0.23599575459957123,
                            -0.13378942012786865,
                            0.15875203907489777,
                            0.2218279093503952
                        ]
                    ]
                ],
                [
                    [
                        [
                            0.11159950494766235,
                            -0.08931837975978851,
                            0.2522372603416443,
                            -0.1844673752784729,
                            0.09289627522230148,
                            -0.21129155158996582,
                            -0.1441580057144165,
                            -0.17816363275051117
                        ],
                        [
                            0.16908448934555054,
                            -0.055459242314100266,
                            0.10513539612293243,
                            0.06737343221902847,
                            0.2948976159095764,
                            0.014278087764978409,
                            -0.11170431971549988,
                            -0.0354657880961895
                        ],
                        [
                            -0.11802834272384644,
                            0.03593559190630913,
                            -0.06544144451618195,
                            -0.21990881860256195,
                            0.2213505059480667,
                            0.28058987855911255,
                            0.012596070766448975,
                            -0.1515827775001526
                        ]
                    ],
                    [
                        [
                            0.10126029700040817,
                            0.23716281354427338,
                            -0.08161850273609161,
                            0.2917850613594055,
                            0.15749138593673706,
                            0.25859495997428894,
                            -0.21228937804698944,
                            -0.08514883369207382
                        ],
                        [
                            0.1767280250787735,
                            -0.130791574716568,
                            0.13538168370723724,
                            -0.1417371779680252,
                            -0.13032153248786926,
                            -0.07705263793468475,
                            -0.07285283505916595,
                            0.2180044800043106
                        ],
                        [
                            0.24878884851932526,
                            -0.19136855006217957,
                            -0.2380039393901825,
                            0.26573479175567627,
                            0.2570044994354248,
                            -0.09397584944963455,
                            -0.15405641496181488,
                            0.2157248556613922
                        ]
                    ],
                    [
                        [
                            -0.08937108516693115,
                            -0.027433760464191437,
                            -0.12609022855758667,
                            -0.07621461898088455,
                            0.15550696849822998,
                            0.21818965673446655,
                            0.13009925186634064,
                            -0.11166151612997055
                        ],
                        [
                            -0.14647085964679718,
                            0.24508653581142426,
                            0.2678518295288086,
                            0.07273351401090622,
                            -0.009522061794996262,
                            0.07595349848270416,
                            -0.23126128315925598,
                            -0.05546925589442253
                        ],
                        [
                            0.21304729580879211,
                            0.23723798990249634,
                            -0.1528131365776062,
                            0.04819411784410477,
                            0.014755353331565857,
                            -0.06545313447713852,
                            -0.0024226177483797073,
                            -0.13475991785526276
                        ]
                    ]
                ]
            ],
            "bias": [
                -0.013276313431560993,
                0.04865792766213417,
                0.04418876767158508,
                0.043908216059207916,
                0.03033190593123436,
                0.0053667244501411915,
                0.005526344757527113,
                -0.0003233017341699451
            ]
        }
    },
    {
        "type": "max_pooling2d",
        "params": {}
    },
    {
        "type": "flatten",
        "params": {}
    },
    {
        "type": "dense",
        "params": {
            "kernel": [
                [
                    0.01637149415910244,
                    -0.011864996515214443,
                    0.11062773317098618,
                    0.05834345519542694,
                    -0.05396110191941261,
                    0.15376494824886322,
                    0.08624111860990524,
                    0.0017984658479690552
                ],
                [
                    0.14786794781684875,
                    0.060112226754426956,
                    -0.1621524542570114,
                    0.1664036512374878,
                    0.038838766515254974,
                    -0.002392140682786703,
                    0.02277742326259613,
                    -0.12233429402112961
                ],
                [
                    0.022385377436876297,
                    0.0742109939455986,
                    0.06756404787302017,
                    0.07487892359495163,
                    0.09408558905124664,
                    0.0959458127617836,
                    0.05444299429655075,
                    0.10425093024969101
                ],
                [
                    0.10313815623521805,
                    -0.001256333664059639,
                    0.05609041452407837,
                    0.09153728187084198,
                    -0.054528821259737015,
                    0.1036536693572998,
                    0.06550661474466324,
                    -0.015541978180408478
                ],
                [
                    -0.046380262821912766,
                    -0.07805357873439789,
                    -0.125656858086586,
                    -0.012669956311583519,
                    -0.006655856501311064,
                    -0.08620303869247437,
                    0.07186856120824814,
                    0.00532030314207077
                ],
                [
                    0.10415372997522354,
                    -0.0873689129948616,
                    0.010633805766701698,
                    0.031109541654586792,
                    0.017181022092700005,
                    0.028927229344844818,
                    -0.09939795732498169,
                    0.09548676759004593
                ],
                [
                    -0.025790052488446236,
                    0.022316256538033485,
                    0.09999432414770126,
                    0.141367107629776,
                    0.0744117796421051,
                    -0.12389601022005081,
                    -0.018690483644604683,
                    -0.059535250067710876
                ],
                [
                    -0.043888866901397705,
                    -0.09259654581546783,
                    0.024097716435790062,
                    0.01390780322253704,
                    0.0257547777146101,
                    -0.12430240958929062,
                    0.0015380862168967724,
                    0.08279513567686081
                ],
                [
                    -0.05024692416191101,
                    0.01002095453441143,
                    -0.04338822513818741,
                    -0.029834289103746414,
                    -0.06534184515476227,
                    -0.07853961735963821,
                    0.1278773546218872,
                    -0.11574296653270721
                ],
                [
                    0.051104836165905,
                    -0.08734291046857834,
                    -0.00995093584060669,
                    0.027837412431836128,
                    -0.06780524551868439,
                    -0.09976409375667572,
                    0.09145469963550568,
                    0.03473467379808426
                ],
                [
                    -0.04590289667248726,
                    0.11644841730594635,
                    0.14008818566799164,
                    -0.06038786470890045,
                    0.042315222322940826,
                    -0.03032495081424713,
                    0.06812629103660583,
                    -0.013705022633075714
                ],
                [
                    0.1328200250864029,
                    0.10558319836854935,
                    0.086563840508461,
                    0.09369385242462158,
                    0.030582357197999954,
                    0.021382810547947884,
                    0.0823027640581131,
                    -0.04631681740283966
                ],
                [
                    0.01841154508292675,
                    0.010326923802495003,
                    -0.016305968165397644,
                    -0.04131009802222252,
                    0.0044143423438072205,
                    -0.04770488291978836,
                    0.02792075090110302,
                    -0.06706653535366058
                ],
                [
                    0.023847585543990135,
                    0.027179254218935966,
                    -0.009176052175462246,
                    -0.03299212455749512,
                    0.11472654342651367,
                    0.07602612674236298,
                    -0.08830689638853073,
                    -0.11781077831983566
                ],
                [
                    0.07316070795059204,
                    -0.022176198661327362,
                    -0.020092986524105072,
                    0.11643994599580765,
                    0.07621635496616364,
                    -0.08322525769472122,
                    0.026203984394669533,
                    0.1097400113940239
                ],
                [
                    0.045776065438985825,
                    0.019058411940932274,
                    -0.11796647310256958,
                    -0.052314870059490204,
                    0.04620857164263725,
                    0.0636952742934227,
                    -0.04853207990527153,
                    -0.03595256060361862
                ],
                [
                    0.10670208185911179,
                    0.00323406676761806,
                    -0.09333310276269913,
                    0.05533807724714279,
                    -0.06989087164402008,
                    0.01999775506556034,
                    0.1292428821325302,
                    -0.07332637906074524
                ],
                [
                    0.10545492172241211,
                    -0.018206512555480003,
                    0.07001303136348724,
                    0.1263740509748459,
                    0.021900231018662453,
                    -0.14296133816242218,
                    0.09476715326309204,
                    -0.049111977219581604
                ],
                [
                    -0.15261170268058777,
                    0.06491418182849884,
                    0.1711519956588745,
                    0.0469173900783062,
                    -0.09912241995334625,
                    0.04337659478187561,
                    0.028618376702070236,
                    -0.03351431339979172
                ],
                [
                    0.07767138630151749,
                    0.11767897754907608,
                    0.14910946786403656,
                    0.03342369198799133,
                    -0.1284923404455185,
                    0.04243532940745354,
                    -0.011516598053276539,
                    -0.11484798043966293
                ],
                [
                    0.08511032164096832,
                    -0.07826720178127289,
                    -0.09152565896511078,
                    0.009562219493091106,
                    -0.010935739614069462,
                    0.035349588841199875,
                    -0.030450033023953438,
                    0.1055978462100029
                ],
                [
                    0.11936585605144501,
                    0.03300124406814575,
                    0.027818238362669945,
                    0.011570388451218605,
                    -0.0822698175907135,
                    -0.1191444918513298,
                    0.011548626236617565,
                    -0.011354409158229828
                ],
                [
                    0.0013751949882134795,
                    -0.04434049129486084,
                    -0.11452021449804306,
                    0.12881046533584595,
                    0.04240725561976433,
                    -0.10887596011161804,
                    0.08896203339099884,
                    -0.07672403007745743
                ],
                [
                    -0.00022765056928619742,
                    -0.0692543238401413,
                    -0.1489822268486023,
                    0.00706314854323864,
                    0.09983587265014648,
                    0.01526370458304882,
                    -0.10521570593118668,
                    -0.029766470193862915
                ],
                [
                    0.10489220172166824,
                    -0.10263261944055557,
                    0.03181116282939911,
                    0.13888724148273468,
                    0.042187511920928955,
                    -0.05432441830635071,
                    -0.09237077087163925,
                    -0.045670412480831146
                ],
                [
                    0.04320899769663811,
                    -0.11581043899059296,
                    0.013778223656117916,
                    -0.07891116291284561,
                    -0.043283164501190186,
                    -0.06930342316627502,
                    0.046851929277181625,
                    0.11289135366678238
                ],
                [
                    -0.06652188301086426,
                    -0.03389827534556389,
                    0.11229147762060165,
                    -0.03090709261596203,
                    -0.0016622311668470502,
                    0.10317033529281616,
                    0.01711493916809559,
                    -0.0023879632353782654
                ],
                [
                    -0.011321811936795712,
                    0.037421151995658875,
                    -0.08208034932613373,
                    0.048929255455732346,
                    0.008210927248001099,
                    0.13243283331394196,
                    -0.08670319616794586,
                    -0.10726036876440048
                ],
                [
                    0.03336605429649353,
                    -0.03752158209681511,
                    -0.00950187724083662,
                    0.023322992026805878,
                    -0.043583571910858154,
                    -0.0378405787050724,
                    -0.05516129732131958,
                    0.08348705619573593
                ],
                [
                    0.10116381198167801,
                    -0.05895564332604408,
                    -0.02027912437915802,
                    0.04675324633717537,
                    -0.12254983186721802,
                    0.0465204082429409,
                    0.07154358178377151,
                    -0.09536735713481903
                ],
                [
                    0.0005652872496284544,
                    -0.03945361077785492,
                    0.08910799026489258,
                    0.146855890750885,
                    -0.06735757738351822,
                    -0.017784537747502327,
                    -0.08360789716243744,
                    -0.07013976573944092
                ],
                [
                    0.12004026770591736,
                    -0.011484754271805286,
                    -0.05359372869133949,
                    0.06159485876560211,
                    -0.03651776537299156,
                    -0.11438285559415817,
                    0.017801232635974884,
                    0.012079186737537384
                ],
                [
                    0.1361367255449295,
                    0.12700054049491882,
                    0.020879479125142097,
                    -0.07599515467882156,
                    -0.04705386608839035,
                    -0.011738182976841927,
                    0.09468058496713638,
                    0.025573037564754486
                ],
                [
                    0.09591273218393326,
                    -0.030940108001232147,
                    -0.14226806163787842,
                    0.009737771935760975,
                    -0.10622098296880722,
                    0.08258415013551712,
                    -0.019187552854418755,
                    0.08571354299783707
                ],
                [
                    -0.06655481457710266,
                    -0.0147442277520895,
                    0.11367081850767136,
                    -0.08908119797706604,
                    0.017634093761444092,
                    0.10722523182630539,
                    -0.012312113307416439,
                    0.08291470259428024
                ],
                [
                    -0.04518858343362808,
                    -0.05324774980545044,
                    0.04876028373837471,
                    0.026195760816335678,
                    -0.01513517927378416,
                    -0.08889027684926987,
                    0.11885571479797363,
                    0.11756280809640884
                ],
                [
                    0.06192897632718086,
                    -0.0941009372472763,
                    0.05078545957803726,
                    0.13011696934700012,
                    0.0667109414935112,
                    -0.02271164581179619,
                    -0.11545158177614212,
                    -0.00014238059520721436
                ],
                [
                    0.16827940940856934,
                    0.039989493787288666,
                    -0.12595710158348083,
                    0.1674317568540573,
                    0.06583630293607712,
                    0.07038193196058273,
                    -0.10830605030059814,
                    0.09548311680555344
                ],
                [
                    -0.04277156665921211,
                    -0.08084914833307266,
                    0.020419564098119736,
                    0.00919396337121725,
                    -0.05507215857505798,
                    -0.13437341153621674,
                    -0.04555670544505119,
                    0.07311143726110458
                ],
                [
                    0.13237552344799042,
                    -0.15087121725082397,
                    -0.03743354231119156,
                    0.07798795402050018,
                    0.04651223123073578,
                    0.007761788554489613,
                    -0.023903483524918556,
                    0.11722546070814133
                ],
                [
                    0.01934605836868286,
                    0.02066538669168949,
                    -0.07061530649662018,
                    -0.07820164412260056,
                    -0.11722821742296219,
                    0.048768848180770874,
                    0.018462248146533966,
                    0.06673593074083328
                ],
                [
                    -0.05081048607826233,
                    0.06696091592311859,
                    -0.058257266879081726,
                    -0.0575672872364521,
                    -0.05739639699459076,
                    0.03255900740623474,
                    -0.1359248161315918,
                    0.10597100108861923
                ],
                [
                    0.03564050793647766,
                    0.023349806666374207,
                    0.12127280980348587,
                    0.07208231091499329,
                    -0.04913681373000145,
                    0.005887242499738932,
                    0.14077088236808777,
                    -0.03144986182451248
                ],
                [
                    0.09699549525976181,
                    0.11785803735256195,
                    0.03246533125638962,
                    0.06840250641107559,
                    -0.07726035267114639,
                    0.14903667569160461,
                    0.04395057260990143,
                    0.09600283950567245
                ],
                [
                    0.1767280399799347,
                    -0.0760263130068779,
                    0.04747503623366356,
                    0.06381186097860336,
                    0.054406534880399704,
                    0.04681586101651192,
                    -0.03755028173327446,
                    -0.011571452021598816
                ],
                [
                    0.15242458879947662,
                    -0.13420642912387848,
                    -0.08293113857507706,
                    0.006474105175584555,
                    0.05697450786828995,
                    0.020247500389814377,
                    -0.009683378972113132,
                    -0.014168806374073029
                ],
                [
                    0.07686807215213776,
                    -0.02627478912472725,
                    -0.0936691164970398,
                    0.057912420481443405,
                    -0.10605143010616302,
                    0.04939338192343712,
                    0.07289620488882065,
                    -0.08093108236789703
                ],
                [
                    0.13062213361263275,
                    -0.12008790671825409,
                    0.04779984429478645,
                    0.17269109189510345,
                    0.09456709027290344,
                    -0.1673448383808136,
                    -0.15933705866336823,
                    -0.033665455877780914
                ],
                [
                    -0.007871769368648529,
                    -0.015917852520942688,
                    0.023502543568611145,
                    0.013074543327093124,
                    0.008433504961431026,
                    -0.011102032847702503,
                    -0.020955029875040054,
                    -0.046200163662433624
                ],
                [
                    -0.04770491644740105,
                    0.06213129311800003,
                    -0.018205886706709862,
                    0.07778763771057129,
                    -0.12485802173614502,
                    0.011459164321422577,
                    0.05006645992398262,
                    -0.09207229316234589
                ],
                [
                    0.08072364330291748,
                    0.0359993614256382,
                    -0.029858607798814774,
                    0.10874725133180618,
                    0.0008664796478115022,
                    0.01743229851126671,
                    0.08591098338365555,
                    -0.06610263884067535
                ],
                [
                    0.0069113001227378845,
                    0.041674014180898666,
                    0.15875892341136932,
                    -0.004248297773301601,
                    -0.07867159694433212,
                    0.10295005887746811,
                    0.1373746395111084,
                    0.019243068993091583
                ],
                [
                    0.06291842460632324,
                    0.011978835798799992,
                    -0.011265763081610203,
                    -0.0222405344247818,
                    -0.09062548726797104,
                    -0.14485608041286469,
                    0.05111262574791908,
                    -0.07086840271949768
                ],
                [
                    -0.04488063603639603,
                    -0.112568698823452,
                    -0.008031204342842102,
                    0.04632977396249771,
                    -0.02984139695763588,
                    -0.012377491220831871,
                    -0.002754996996372938,
                    0.04079175740480423
                ],
                [
                    0.052943386137485504,
                    0.057487618178129196,
                    -0.07042041420936584,
                    0.06884867697954178,
                    -0.04586625099182129,
                    -0.06234874948859215,
                    0.07775478065013885,
                    -0.10853714495897293
                ],
                [
                    0.0708799660205841,
                    -0.031141230836510658,
                    0.09367357194423676,
                    0.0859212651848793,
                    0.045416150242090225,
                    0.006968878209590912,
                    -0.14083550870418549,
                    0.09945549815893173
                ],
                [
                    -0.07180694490671158,
                    0.027804119512438774,
                    -0.01609399914741516,
                    0.10371768474578857,
                    0.03807377442717552,
                    0.09699010103940964,
                    0.030645079910755157,
                    0.029699258506298065
                ],
                [
                    0.14347362518310547,
                    -0.11733186990022659,
                    0.021745584905147552,
                    0.13976797461509705,
                    -0.053957656025886536,
                    0.022425727918744087,
                    0.10682980716228485,
                    0.10551214963197708
                ],
                [
                    0.039872121065855026,
                    0.13888445496559143,
                    0.03734242916107178,
                    -0.03927553445100784,
                    0.07808656990528107,
                    0.011095652356743813,
                    -0.060676127672195435,
                    -0.1058514267206192
                ],
                [
                    -0.03674512729048729,
                    0.10333558171987534,
                    0.07071074098348618,
                    -0.045111898332834244,
                    -0.010236774571239948,
                    0.11552273482084274,
                    -0.0219704732298851,
                    0.036041103303432465
                ],
                [
                    0.11095942556858063,
                    -0.004132992122322321,
                    -0.028889181092381477,
                    0.030878528952598572,
                    -0.11766741424798965,
                    -0.0020580163691192865,
                    -0.03844374790787697,
                    0.036516912281513214
                ],
                [
                    0.010838879272341728,
                    0.09652476012706757,
                    -0.04964097961783409,
                    0.06942780315876007,
                    0.03450480103492737,
                    -0.04501238837838173,
                    0.04134334996342659,
                    -0.10645803064107895
                ],
                [
                    0.03167666867375374,
                    0.028402483090758324,
                    0.05492406338453293,
                    0.11264201253652573,
                    0.027353854849934578,
                    -0.11808233708143234,
                    -0.07387431710958481,
                    -0.010819286108016968
                ],
                [
                    0.1350799798965454,
                    -0.07693493366241455,
                    -0.10567829012870789,
                    0.08559615910053253,
                    0.039750028401613235,
                    -0.16842691600322723,
                    -0.01950720138847828,
                    0.0556010827422142
                ],
                [
                    -0.0092080133035779,
                    -0.05438115820288658,
                    0.12157665938138962,
                    0.014383492060005665,
                    -0.09644189476966858,
                    0.025766732171177864,
                    -0.06908953934907913,
                    0.05167119950056076
                ],
                [
                    -0.009808202274143696,
                    -0.03223501518368721,
                    0.10955414175987244,
                    0.08806595206260681,
                    0.0923956111073494,
                    0.12490716576576233,
                    -0.09675796329975128,
                    0.11429836601018906
                ],
                [
                    0.08709261566400528,
                    0.16050009429454803,
                    0.04641119763255119,
                    -0.07276470214128494,
                    0.03126297891139984,
                    0.02344534732401371,
                    0.015591123141348362,
                    0.08935802429914474
                ],
                [
                    -0.03196714445948601,
                    0.04182489216327667,
                    0.018343765288591385,
                    0.0770537406206131,
                    0.0005665577482432127,
                    0.10623367875814438,
                    0.11350120604038239,
                    0.019856072962284088
                ],
                [
                    0.09332261234521866,
                    0.031163690611720085,
                    0.008000568486750126,
                    -0.0018662262009456754,
                    -0.06616394221782684,
                    -0.04886641725897789,
                    -0.10065876692533493,
                    -0.038827843964099884
                ],
                [
                    0.1606450378894806,
                    -0.07902490347623825,
                    -0.1131000965833664,
                    -0.07386462390422821,
                    -0.00268533150665462,
                    0.1077108308672905,
                    -0.07039204984903336,
                    0.03748510032892227
                ],
                [
                    0.04782124236226082,
                    -0.12424562871456146,
                    -0.12622526288032532,
                    0.17241057753562927,
                    0.09762996435165405,
                    -0.06032111868262291,
                    -0.02450260892510414,
                    0.09193117171525955
                ],
                [
                    -0.040993109345436096,
                    0.048199672251939774,
                    -0.04534891992807388,
                    -0.032781630754470825,
                    0.03860665485262871,
                    -0.008159820921719074,
                    -0.06412632018327713,
                    0.10908813029527664
                ],
                [
                    0.07962878793478012,
                    -0.015305176377296448,
                    -0.044522564858198166,
                    -0.014912815764546394,
                    -0.11773344874382019,
                    -0.005806149914860725,
                    0.08731546998023987,
                    0.0366736575961113
                ],
                [
                    0.14737704396247864,
                    0.080187126994133,
                    -0.12725794315338135,
                    0.08249068260192871,
                    0.11060135811567307,
                    -0.04625435173511505,
                    0.07595767825841904,
                    -0.0393272265791893
                ],
                [
                    -0.08397303521633148,
                    0.02230803295969963,
                    0.01793505810201168,
                    -0.10772429406642914,
                    -0.12206997722387314,
                    0.019079122692346573,
                    0.12006976455450058,
                    -0.051835156977176666
                ],
                [
                    0.10318134725093842,
                    0.07487866282463074,
                    -0.07952393591403961,
                    -0.026707785204052925,
                    0.04010799527168274,
                    -0.04105670377612114,
                    0.07754848152399063,
                    -0.02770058810710907
                ],
                [
                    0.04439815506339073,
                    0.0576237291097641,
                    0.01539642084389925,
                    0.016816765069961548,
                    0.029019979760050774,
                    -0.11898881196975708,
                    -0.024018600583076477,
                    -0.027968935668468475
                ],
                [
                    -0.0023544011637568474,
                    -0.08137806504964828,
                    -0.00999316107481718,
                    0.018042633309960365,
                    0.03762594982981682,
                    -0.05914250388741493,
                    -0.13691039383411407,
                    0.031994156539440155
                ],
                [
                    0.16712051630020142,
                    -0.07048651576042175,
                    0.0702446848154068,
                    0.1003878265619278,
                    0.0354728028178215,
                    0.0056512667797505856,
                    -0.13368012011051178,
                    -0.0032504796981811523
                ],
                [
                    -0.015106868930161,
                    -0.0013259395491331816,
                    -0.1613140106201172,
                    0.11209665238857269,
                    0.018910257145762444,
                    0.04454139247536659,
                    -0.16210243105888367,
                    0.1033540591597557
                ],
                [
                    0.05399622768163681,
                    -0.00089861243031919,
                    -0.005705028772354126,
                    -0.07733678072690964,
                    -0.027293553575873375,
                    0.08954137563705444,
                    -0.048222918063402176,
                    0.04713834077119827
                ],
                [
                    -0.012308704666793346,
                    -0.059601377695798874,
                    0.09213005751371384,
                    0.05851959437131882,
                    0.09273291379213333,
                    -0.05466027930378914,
                    -0.03381691873073578,
                    -0.05796787142753601
                ],
                [
                    0.03776029497385025,
                    -0.04342322424054146,
                    -0.051896583288908005,
                    -0.10241198539733887,
                    -0.015548164956271648,
                    -0.04826529696583748,
                    0.11467382311820984,
                    -0.10056870430707932
                ],
                [
                    -0.036003682762384415,
                    -0.0883973017334938,
                    -0.05507703498005867,
                    0.13715362548828125,
                    0.08507432788610458,
                    0.003356706816703081,
                    0.042468585073947906,
                    -0.06175846606492996
                ],
                [
                    0.17168238759040833,
                    -0.021417289972305298,
                    -0.09350049495697021,
                    0.03408955782651901,
                    -0.0315241776406765,
                    -0.11423096805810928,
                    -0.07501659542322159,
                    -0.08790627121925354
                ],
                [
                    -0.012710473500192165,
                    -0.13708534836769104,
                    -0.03559958189725876,
                    0.1306087225675583,
                    0.0062803528271615505,
                    -0.1133795827627182,
                    -0.09385065734386444,
                    0.07480604201555252
                ],
                [
                    0.08418606966733932,
                    -0.12075920403003693,
                    -0.001752773066982627,
                    0.17359843850135803,
                    0.10591667145490646,
                    0.07486651092767715,
                    0.057173166424036026,
                    0.0842757597565651
                ],
                [
                    0.03663914278149605,
                    -0.095241978764534,
                    -0.09115347266197205,
                    0.08266687393188477,
                    0.10780522227287292,
                    -0.17430634796619415,
                    -0.16035997867584229,
                    0.08505638688802719
                ],
                [
                    0.12939758598804474,
                    -0.07741637527942657,
                    -0.07288333773612976,
                    0.07457128912210464,
                    -0.019150834530591965,
                    -0.045150384306907654,
                    -0.05561130493879318,
                    -0.07909955084323883
                ],
                [
                    0.04193750023841858,
                    0.03544830158352852,
                    -0.12116298824548721,
                    -0.04258916899561882,
                    0.061691511422395706,
                    0.1028832495212555,
                    -0.11894731223583221,
                    -0.075501449406147
                ],
                [
                    -0.1133287325501442,
                    0.07812431454658508,
                    -0.047343816608190536,
                    -0.05524098873138428,
                    -0.11196666955947876,
                    -0.015352125279605389,
                    -0.04340966045856476,
                    -0.08390634506940842
                ],
                [
                    0.040059588849544525,
                    0.1182020977139473,
                    -0.05478476360440254,
                    0.11293026804924011,
                    0.007611182983964682,
                    0.06594660133123398,
                    0.021495448425412178,
                    0.006585665047168732
                ],
                [
                    0.16124625504016876,
                    0.022055651992559433,
                    -0.1596240997314453,
                    -0.0470641627907753,
                    -0.07297670841217041,
                    -0.03467998653650284,
                    -0.04063917323946953,
                    -0.10940465331077576
                ],
                [
                    0.10012105852365494,
                    0.04131452366709709,
                    -0.04499401897192001,
                    0.1352028101682663,
                    -0.11135208606719971,
                    0.09525589644908905,
                    -0.07911533862352371,
                    0.09255176037549973
                ],
                [
                    0.1352003961801529,
                    -0.11904685944318771,
                    -0.08959759026765823,
                    0.11441727727651596,
                    0.1000441461801529,
                    -0.02464277856051922,
                    -0.067952960729599,
                    -0.04665522277355194
                ],
                [
                    0.18984030187129974,
                    -0.07163602113723755,
                    0.07048353552818298,
                    0.11170646548271179,
                    0.02733072079718113,
                    -0.13723447918891907,
                    -0.15277481079101562,
                    -0.05358124524354935
                ],
                [
                    0.1323632299900055,
                    -0.09843146800994873,
                    0.059601299464702606,
                    0.020340269431471825,
                    -0.09180010110139847,
                    -0.04049084708094597,
                    -0.008782190270721912,
                    -0.033461496233940125
                ],
                [
                    -0.0018359621753916144,
                    0.127584308385849,
                    0.06917544454336166,
                    0.03386734798550606,
                    -0.021804511547088623,
                    -0.038995470851659775,
                    0.09019410610198975,
                    0.060027070343494415
                ],
                [
                    -0.09127328544855118,
                    0.10423719882965088,
                    0.03630019724369049,
                    -0.06941971927881241,
                    -0.008005497045814991,
                    -0.0645318329334259,
                    0.08011014759540558,
                    -0.06729499995708466
                ],
                [
                    0.1312132477760315,
                    0.11412560939788818,
                    -0.07309847325086594,
                    -0.06664608418941498,
                    -0.12872105836868286,
                    -0.02187366597354412,
                    0.0809515044093132,
                    -0.027059435844421387
                ],
                [
                    0.19239945709705353,
                    0.03676212579011917,
                    -0.12996260821819305,
                    0.08160194754600525,
                    -0.1296710968017578,
                    -0.0961126908659935,
                    -0.07000434398651123,
                    -0.09491192549467087
                ],
                [
                    0.06615088880062103,
                    -0.07222174108028412,
                    -0.0881098285317421,
                    0.11710386723279953,
                    -0.12108700722455978,
                    -0.11387959867715836,
                    -0.08149262517690659,
                    -0.1111871525645256
                ],
                [
                    0.018928956240415573,
                    -0.05717504397034645,
                    -0.03150934353470802,
                    0.11739402264356613,
                    0.053825028240680695,
                    0.05717073008418083,
                    0.06666707992553711,
                    0.015055350959300995
                ],
                [
                    0.1430886834859848,
                    0.06258664280176163,
                    -0.06665883213281631,
                    -0.04098246991634369,
                    -0.03160152956843376,
                    -0.05593152716755867,
                    -0.1211497113108635,
                    -0.046886369585990906
                ],
                [
                    -0.056003388017416,
                    0.11694496870040894,
                    -0.02486484870314598,
                    -0.04826794192194939,
                    -0.11609487235546112,
                    -0.0014584348537027836,
                    -0.005374925676733255,
                    0.028211332857608795
                ],
                [
                    0.13020193576812744,
                    0.04010937362909317,
                    0.08050253987312317,
                    -0.038759589195251465,
                    -0.08007387816905975,
                    0.002980030607432127,
                    0.10541354864835739,
                    0.10797866433858871
                ],
                [
                    0.04256775975227356,
                    0.044358041137456894,
                    0.14504508674144745,
                    -0.09134019166231155,
                    -0.07558409124612808,
                    0.13583214581012726,
                    0.016885245218873024,
                    -0.10593701153993607
                ],
                [
                    -0.006873528007417917,
                    0.06333897262811661,
                    0.002331022871658206,
                    0.05730259418487549,
                    -0.020175166428089142,
                    0.09322667121887207,
                    -0.007028627675026655,
                    0.019642002880573273
                ],
                [
                    -0.008417358621954918,
                    -0.11587796360254288,
                    -0.06328081339597702,
                    0.06675300747156143,
                    0.08356150984764099,
                    0.010440682992339134,
                    0.08168072253465652,
                    -0.11774516105651855
                ],
                [
                    0.11366761475801468,
                    -0.10613387823104858,
                    -0.10945982486009598,
                    0.01542955357581377,
                    0.06823781132698059,
                    0.01382704358547926,
                    -0.07110955566167831,
                    -0.08255431801080704
                ],
                [
                    -0.05585041642189026,
                    -0.11015532910823822,
                    -0.005816149525344372,
                    0.050139110535383224,
                    0.04105729982256889,
                    -0.02899642288684845,
                    -0.13618211448192596,
                    -0.03888896107673645
                ],
                [
                    0.14120258390903473,
                    -0.09069205820560455,
                    0.03001716546714306,
                    0.1248597800731659,
                    -0.02855713665485382,
                    0.06132379546761513,
                    0.01676013320684433,
                    -0.013960465788841248
                ],
                [
                    -0.09891068190336227,
                    0.06737475097179413,
                    0.11560742557048798,
                    0.04656168445944786,
                    -0.008078012615442276,
                    0.12269769608974457,
                    -0.036821573972702026,
                    -0.04147583991289139
                ],
                [
                    -0.08427076041698456,
                    0.10576758533716202,
                    0.053887076675891876,
                    0.025624744594097137,
                    -0.05761059746146202,
                    0.05738816782832146,
                    0.012983744032680988,
                    -0.08765260875225067
                ],
                [
                    0.0658474862575531,
                    0.15194940567016602,
                    0.011392033658921719,
                    -0.11961856484413147,
                    -0.028256595134735107,
                    -0.013757063075900078,
                    0.07493842393159866,
                    -0.05826687812805176
                ],
                [
                    0.14484085142612457,
                    -0.08126423507928848,
                    0.12642091512680054,
                    0.11892370879650116,
                    0.03280888497829437,
                    -0.04814054071903229,
                    0.13889211416244507,
                    0.036041297018527985
                ],
                [
                    0.014862309210002422,
                    -0.005364966578781605,
                    -0.111301489174366,
                    0.1550990492105484,
                    -0.11404918134212494,
                    -0.11365954577922821,
                    -0.10808088630437851,
                    0.08942734450101852
                ],
                [
                    0.0542881079018116,
                    0.06185092031955719,
                    -0.022922245785593987,
                    -0.007462603040039539,
                    0.03100288286805153,
                    -0.05261768400669098,
                    -0.10196384787559509,
                    -0.06158694252371788
                ],
                [
                    0.09428402781486511,
                    -0.1093713790178299,
                    -0.11069261282682419,
                    0.17605704069137573,
                    -0.008760483004152775,
                    -0.14299501478672028,
                    -0.1680465042591095,
                    -0.09597080945968628
                ],
                [
                    0.05416445434093475,
                    -0.15449929237365723,
                    0.04417974874377251,
                    0.16164261102676392,
                    -0.11261837184429169,
                    0.00685926852747798,
                    -0.023280801251530647,
                    -0.10644136369228363
                ],
                [
                    0.11931894719600677,
                    -0.033203184604644775,
                    0.12828315794467926,
                    -0.06905177235603333,
                    0.002912048017606139,
                    -0.009402899071574211,
                    -0.08921225368976593,
                    -0.022222131490707397
                ],
                [
                    -0.08255694061517715,
                    0.07578576356172562,
                    0.0864577367901802,
                    -0.06744267046451569,
                    -0.03595912829041481,
                    0.020663239061832428,
                    0.10720204561948776,
                    0.11963345855474472
                ],
                [
                    0.09501031041145325,
                    0.03343706578016281,
                    0.1606120765209198,
                    -0.06278210133314133,
                    -0.12912605702877045,
                    0.11698819696903229,
                    -0.029234863817691803,
                    -0.050940848886966705
                ],
                [
                    0.0773915946483612,
                    -0.06521373242139816,
                    -0.009803200140595436,
                    0.13860249519348145,
                    0.10891401022672653,
                    0.07183438539505005,
                    0.11584082990884781,
                    -0.10265675187110901
                ],
                [
                    -0.060614075511693954,
                    0.020498286932706833,
                    -0.13240528106689453,
                    0.13350848853588104,
                    -0.0514930784702301,
                    -0.0049416683614254,
                    0.030491573736071587,
                    -0.09619781374931335
                ],
                [
                    0.05451997369527817,
                    0.043124787509441376,
                    0.13149985671043396,
                    0.008593417704105377,
                    -0.09879935532808304,
                    0.12382322549819946,
                    0.07677870988845825,
                    -0.06953667104244232
                ],
                [
                    0.1316055804491043,
                    -0.1409071683883667,
                    0.030818020924925804,
                    0.08350342512130737,
                    -0.09621230512857437,
                    -0.09226901829242706,
                    -0.12787048518657684,
                    -0.028084978461265564
                ],
                [
                    0.17661726474761963,
                    -0.16413231194019318,
                    -0.14911627769470215,
                    -0.04160703718662262,
                    -0.02194378338754177,
                    0.023471079766750336,
                    -0.12384260445833206,
                    -0.013108231127262115
                ],
                [
                    0.07563256472349167,
                    0.04496549069881439,
                    0.09264969080686569,
                    -0.031246796250343323,
                    0.03816693648695946,
                    0.012433110736310482,
                    -0.05329858139157295,
                    0.022100545465946198
                ],
                [
                    -0.07370445877313614,
                    0.020359771326184273,
                    -0.019909488037228584,
                    -0.09186258167028427,
                    -0.10191924124956131,
                    0.08880633115768433,
                    0.09469013661146164,
                    -0.04318743199110031
                ],
                [
                    -0.03884517773985863,
                    0.02627657726407051,
                    0.18248678743839264,
                    0.03313685208559036,
                    0.018442874774336815,
                    0.06889702379703522,
                    0.10831554234027863,
                    0.09348558634519577
                ],
                [
                    0.16881237924098969,
                    0.03483356162905693,
                    -0.012855536304414272,
                    0.0960606262087822,
                    -0.08519355207681656,
                    -0.10424170643091202,
                    0.09996537864208221,
                    -0.011839479207992554
                ],
                [
                    0.10612481087446213,
                    -0.054298270493745804,
                    0.07472709566354752,
                    0.1559114009141922,
                    0.03162970766425133,
                    0.040025655180215836,
                    0.0018818479729816318,
                    0.014158971607685089
                ],
                [
                    -0.04169568046927452,
                    -0.07848462462425232,
                    0.052832845598459244,
                    -0.07798756659030914,
                    0.11004769802093506,
                    0.03366846591234207,
                    -0.10282501578330994,
                    -0.09395836293697357
                ],
                [
                    0.13578017055988312,
                    -0.06937316805124283,
                    -0.008281305432319641,
                    0.07182099670171738,
                    0.062348734587430954,
                    0.008806300349533558,
                    -0.0765283852815628,
                    0.03297305852174759
                ],
                [
                    0.13356934487819672,
                    0.027624469250440598,
                    0.03170924633741379,
                    0.11981591582298279,
                    -0.050520043820142746,
                    -0.04951998591423035,
                    -0.11930926889181137,
                    -0.026773713529109955
                ],
                [
                    0.011879194527864456,
                    -0.07397210597991943,
                    -0.031991343945264816,
                    -0.03411440923810005,
                    0.010699952021241188,
                    0.015804221853613853,
                    -0.07510406523942947,
                    0.0037078335881233215
                ],
                [
                    0.0678691640496254,
                    -0.09812162071466446,
                    0.05247899517416954,
                    0.0052870213985443115,
                    -0.0396113358438015,
                    0.09288765490055084,
                    0.09921234846115112,
                    -0.08996739983558655
                ],
                [
                    -0.06770899891853333,
                    0.16396766901016235,
                    -0.05635981261730194,
                    0.0077904812060296535,
                    0.0135955223813653,
                    -0.036441534757614136,
                    0.027215711772441864,
                    -0.10864398628473282
                ],
                [
                    0.16395018994808197,
                    0.1032385379076004,
                    -0.08045751601457596,
                    -0.06665810942649841,
                    -0.008007888682186604,
                    -0.05296923220157623,
                    -0.10161884129047394,
                    0.045920781791210175
                ],
                [
                    0.1924854964017868,
                    0.03547125682234764,
                    -0.02910996414721012,
                    0.13392196595668793,
                    0.03211726248264313,
                    -0.10627269744873047,
                    -0.06117701157927513,
                    -0.04828348010778427
                ],
                [
                    -0.03621869906783104,
                    0.11793293803930283,
                    0.06451068818569183,
                    -0.05171740800142288,
                    -0.10326889902353287,
                    0.012528721243143082,
                    -0.04948577657341957,
                    -0.06529732048511505
                ],
                [
                    0.1391373723745346,
                    -0.07699312269687653,
                    -0.10333581268787384,
                    0.13928401470184326,
                    0.0405719168484211,
                    -0.022539649158716202,
                    -0.06567800045013428,
                    0.08960283547639847
                ],
                [
                    0.0600154735147953,
                    -0.06736480444669724,
                    -0.16290979087352753,
                    0.1881946325302124,
                    0.08280874043703079,
                    -0.1311492621898651,
                    0.0048016710206866264,
                    -0.09125074744224548
                ],
                [
                    0.13887444138526917,
                    -0.0002020755928242579,
                    -0.017894314602017403,
                    0.046643465757369995,
                    0.02079837955534458,
                    -0.045453935861587524,
                    0.08661343157291412,
                    0.10965431481599808
                ],
                [
                    0.004201042465865612,
                    0.10444560647010803,
                    0.06372679769992828,
                    -0.012718635611236095,
                    0.02788088656961918,
                    -0.03271669149398804,
                    0.1099008172750473,
                    -0.05876202881336212
                ],
                [
                    0.07831331342458725,
                    -0.04999274015426636,
                    0.12628775835037231,
                    -0.0019549657590687275,
                    -0.08407823741436005,
                    0.14463543891906738,
                    0.005148713476955891,
                    0.12127500027418137
                ],
                [
                    0.11236204206943512,
                    0.08758412301540375,
                    -0.08501454442739487,
                    0.15729691088199615,
                    -0.07757691293954849,
                    0.10177555680274963,
                    -0.006554111372679472,
                    -0.05837634950876236
                ],
                [
                    0.1345645785331726,
                    -0.033623773604631424,
                    -0.027287786826491356,
                    0.037335995584726334,
                    0.059293393045663834,
                    0.02726135030388832,
                    -0.01327008381485939,
                    -0.05185895413160324
                ],
                [
                    -0.05964630842208862,
                    -0.0645599365234375,
                    0.07752138376235962,
                    -0.04865330457687378,
                    -0.008916844613850117,
                    -0.018872225657105446,
                    0.08852417767047882,
                    -0.10478468239307404
                ],
                [
                    0.006579169537872076,
                    0.0429348386824131,
                    0.07685486972332001,
                    0.009586338885128498,
                    -0.01745569333434105,
                    0.03559769690036774,
                    -0.11554247885942459,
                    -0.020125091075897217
                ],
                [
                    -0.009849529713392258,
                    -0.1486256867647171,
                    0.036702655255794525,
                    0.16888494789600372,
                    -0.12122845649719238,
                    0.03430299088358879,
                    0.0033497093245387077,
                    0.05266163498163223
                ],
                [
                    -0.07863346487283707,
                    -0.06869500875473022,
                    0.016037287190556526,
                    -0.04527836665511131,
                    -0.011420253664255142,
                    -0.07743854075670242,
                    0.048080846667289734,
                    -0.07453880459070206
                ],
                [
                    0.05084538087248802,
                    0.0362638458609581,
                    -0.025671547278761864,
                    0.07269115000963211,
                    -0.08677595853805542,
                    -0.07506787776947021,
                    -0.038509301841259,
                    -0.07617206126451492
                ],
                [
                    0.007761503104120493,
                    0.14503881335258484,
                    0.016193566843867302,
                    -0.04566033557057381,
                    -0.027584565803408623,
                    0.07627993077039719,
                    0.08163939416408539,
                    -0.0063312724232673645
                ],
                [
                    -0.04383086785674095,
                    -0.0031526905950158834,
                    0.07010596990585327,
                    -0.06588681042194366,
                    -0.0189948920160532,
                    0.11928073316812515,
                    -0.04417045786976814,
                    -0.03514204919338226
                ],
                [
                    0.07001131772994995,
                    -0.008123534731566906,
                    0.017238900065422058,
                    0.09659506380558014,
                    -0.11601823568344116,
                    -0.13210827112197876,
                    -0.020090211182832718,
                    -0.10593587160110474
                ],
                [
                    0.08828015625476837,
                    -0.09157819300889969,
                    0.009876638650894165,
                    0.03193723410367966,
                    0.026997340843081474,
                    0.07923156023025513,
                    -0.07690930366516113,
                    -0.08749963343143463
                ],
                [
                    0.19440138339996338,
                    -0.00675922492519021,
                    0.030538368970155716,
                    -0.016413621604442596,
                    0.010689218528568745,
                    -0.14379353821277618,
                    -0.06162552163004875,
                    0.07052778452634811
                ],
                [
                    0.08125682175159454,
                    -0.025437703356146812,
                    0.04868073761463165,
                    0.09927280992269516,
                    -0.08421437442302704,
                    -0.0369451604783535,
                    -0.09382116049528122,
                    0.09828708320856094
                ],
                [
                    -0.0723157748579979,
                    0.08927503228187561,
                    -0.03756358101963997,
                    -0.07412592321634293,
                    -0.04811461269855499,
                    0.021883640438318253,
                    0.040491584688425064,
                    -0.06049593538045883
                ],
                [
                    -0.009440509602427483,
                    -0.09135207533836365,
                    0.0394529365003109,
                    -0.05798056721687317,
                    -0.018289590254426003,
                    -0.06896400451660156,
                    0.12660640478134155,
                    -0.10072384774684906
                ],
                [
                    -0.02779199369251728,
                    0.15866681933403015,
                    0.14509427547454834,
                    -0.1258908212184906,
                    0.026651468127965927,
                    0.10573944449424744,
                    0.10057559609413147,
                    0.014733187854290009
                ],
                [
                    -0.03106900118291378,
                    0.11858680099248886,
                    0.10584452003240585,
                    0.11922932416200638,
                    -0.08543046563863754,
                    0.04629572480916977,
                    -0.028394201770424843,
                    0.02120465785264969
                ],
                [
                    0.005686064716428518,
                    0.019489813596010208,
                    -0.07056768983602524,
                    0.1688874512910843,
                    0.09028690308332443,
                    0.0549314022064209,
                    0.028386877849698067,
                    -0.004487283527851105
                ],
                [
                    0.06219441816210747,
                    -0.10658073425292969,
                    0.1141180768609047,
                    -0.009275974705815315,
                    0.009365662932395935,
                    -0.09174732863903046,
                    0.03520231693983078,
                    0.09083037823438644
                ],
                [
                    0.09628721326589584,
                    -0.1590307056903839,
                    -0.1368487924337387,
                    0.0064036245457828045,
                    0.09601043164730072,
                    -0.1557660698890686,
                    -0.09475172311067581,
                    -0.03067874163389206
                ],
                [
                    0.1501631885766983,
                    -0.03479456529021263,
                    0.03932170197367668,
                    0.004879473242908716,
                    -0.056435782462358475,
                    -0.10807707905769348,
                    -0.16358616948127747,
                    0.037579067051410675
                ],
                [
                    0.001636218512430787,
                    -0.03130273520946503,
                    0.04321765899658203,
                    -0.02028915099799633,
                    -0.03169289231300354,
                    0.09513286501169205,
                    0.09883259236812592,
                    0.0014745518565177917
                ],
                [
                    -0.030243363231420517,
                    0.08010852336883545,
                    0.09965553879737854,
                    0.0971926674246788,
                    -0.06512591987848282,
                    -0.015411894768476486,
                    -0.058914631605148315,
                    0.02120191603899002
                ],
                [
                    -0.0023547369055449963,
                    0.030481411144137383,
                    -0.038334235548973083,
                    -0.04555084556341171,
                    0.013760439120233059,
                    0.15041537582874298,
                    -0.00029748643282800913,
                    -0.0032870396971702576
                ],
                [
                    0.02177978865802288,
                    -0.025616416707634926,
                    0.07399000972509384,
                    -0.037085019052028656,
                    -0.03377654030919075,
                    0.07076997309923172,
                    0.0007553299656137824,
                    -0.1065838560461998
                ],
                [
                    0.059667881578207016,
                    -0.10855164378881454,
                    0.0819992944598198,
                    0.05572770908474922,
                    -0.08340439200401306,
                    0.003067111363634467,
                    -0.06850261986255646,
                    0.04713427275419235
                ],
                [
                    0.12855997681617737,
                    0.03715706244111061,
                    0.12071976810693741,
                    -0.018335288390517235,
                    -0.10743390023708344,
                    -0.06429808586835861,
                    0.028370117768645287,
                    -0.04462478309869766
                ],
                [
                    0.03759057819843292,
                    -0.17334739863872528,
                    -0.01928768679499626,
                    0.15741820633411407,
                    -0.06857627630233765,
                    0.04872838407754898,
                    0.04025210812687874,
                    -0.04385994374752045
                ],
                [
                    0.004647667985409498,
                    -0.006971319206058979,
                    -0.02014901489019394,
                    0.054264962673187256,
                    0.07097635418176651,
                    0.005211722105741501,
                    -0.09315624088048935,
                    0.005902059376239777
                ],
                [
                    0.12264475226402283,
                    0.03555351868271828,
                    0.027541495859622955,
                    0.07919391244649887,
                    -0.09325899928808212,
                    -0.032448556274175644,
                    0.05705993250012398,
                    -0.08696100115776062
                ],
                [
                    -0.04611172154545784,
                    0.09553314000368118,
                    0.06749250739812851,
                    0.07490216195583344,
                    -0.11573930829763412,
                    0.053310904651880264,
                    -0.09632807970046997,
                    -0.07154686748981476
                ],
                [
                    -0.087091825902462,
                    0.11545229703187943,
                    0.11947014927864075,
                    -0.09484943002462387,
                    -0.04113205149769783,
                    -0.02909957803785801,
                    0.027614114806056023,
                    -0.027878008782863617
                ],
                [
                    -0.024381592869758606,
                    0.040391407907009125,
                    0.03709644824266434,
                    0.020925700664520264,
                    -0.002204538555815816,
                    -0.027047205716371536,
                    0.03625576198101044,
                    0.05315815657377243
                ],
                [
                    0.004307418130338192,
                    0.04571533203125,
                    -0.14845280349254608,
                    -0.026564935222268105,
                    0.0818253606557846,
                    -0.15910093486309052,
                    -0.14600643515586853,
                    -0.005647897720336914
                ],
                [
                    0.08839697390794754,
                    0.06008366867899895,
                    0.07342460751533508,
                    0.0637473613023758,
                    0.010988284833729267,
                    0.06443089246749878,
                    -0.09853730350732803,
                    0.07027184218168259
                ],
                [
                    0.11980265378952026,
                    -0.007755448576062918,
                    -0.016165107488632202,
                    -0.031832076609134674,
                    -0.08329344540834427,
                    -0.015301937237381935,
                    -0.13820871710777283,
                    -0.026763729751110077
                ],
                [
                    0.12210924923419952,
                    -0.1703939586877823,
                    -0.13849499821662903,
                    0.10253225266933441,
                    0.052052129060029984,
                    0.044803209602832794,
                    -0.1520015150308609,
                    0.0755375400185585
                ],
                [
                    -0.013016646727919579,
                    -0.09040997177362442,
                    -0.005419415421783924,
                    0.14641478657722473,
                    -0.04699335992336273,
                    0.0034153133165091276,
                    -0.06447506695985794,
                    0.026554979383945465
                ],
                [
                    -0.005684006027877331,
                    -0.01343642920255661,
                    -0.01395960059016943,
                    -0.014379441738128662,
                    0.10188028216362,
                    0.018637804314494133,
                    0.039984144270420074,
                    -0.06415744125843048
                ],
                [
                    -0.1286960244178772,
                    -0.0672127977013588,
                    0.06754182279109955,
                    0.02753729373216629,
                    -0.057486243546009064,
                    0.11497194319963455,
                    0.07502420991659164,
                    -0.020829632878303528
                ],
                [
                    0.11170202493667603,
                    -0.09836281836032867,
                    0.06716100126504898,
                    0.11413963884115219,
                    0.04706040397286415,
                    0.027693646028637886,
                    0.05863787606358528,
                    0.015565745532512665
                ],
                [
                    -0.029065562412142754,
                    0.040120843797922134,
                    -0.020629607141017914,
                    -0.04856331646442413,
                    -0.11079804599285126,
                    -0.07670024782419205,
                    0.008104397915303707,
                    -0.06699703633785248
                ],
                [
                    0.0489177331328392,
                    -0.12821078300476074,
                    -0.06546151638031006,
                    -0.07722499221563339,
                    -0.023592161014676094,
                    -0.011004656553268433,
                    -0.08170328289270401,
                    -0.03100680559873581
                ],
                [
                    0.046944089233875275,
                    -0.04416600614786148,
                    -0.04798220843076706,
                    0.04605083167552948,
                    -0.031999439001083374,
                    -0.0004187858721707016,
                    0.061855316162109375,
                    0.07658287137746811
                ],
                [
                    0.18165580928325653,
                    -0.08539383858442307,
                    -0.05961232632398605,
                    -0.025243356823921204,
                    -0.05296122655272484,
                    -0.00024680374190211296,
                    -0.037036944180727005,
                    0.10483116656541824
                ],
                [
                    0.07642045617103577,
                    -0.05385492369532585,
                    -0.05685744062066078,
                    -0.014816613867878914,
                    -0.013912968337535858,
                    -0.101590596139431,
                    -0.10783899575471878,
                    0.04330148547887802
                ],
                [
                    0.005191786214709282,
                    -0.003370818216353655,
                    0.10449124127626419,
                    -0.1129441037774086,
                    0.008945661596953869,
                    -0.01062437891960144,
                    -0.08234573900699615,
                    -0.11517983675003052
                ],
                [
                    0.06821402907371521,
                    0.012607462704181671,
                    0.03787870705127716,
                    0.008308179676532745,
                    0.058709919452667236,
                    0.12984296679496765,
                    0.06283530592918396,
                    -0.10411521792411804
                ],
                [
                    0.07544492930173874,
                    -0.09385916590690613,
                    0.010226116515696049,
                    -0.06752239167690277,
                    -0.10076167434453964,
                    -0.0822053849697113,
                    -0.11712394654750824,
                    -0.06264857947826385
                ],
                [
                    -0.01344592310488224,
                    -0.009510435163974762,
                    0.02954358607530594,
                    0.059835344552993774,
                    -0.023711498826742172,
                    -0.005955819971859455,
                    -0.16598857939243317,
                    -0.03076929599046707
                ],
                [
                    0.04794695973396301,
                    0.017444361001253128,
                    0.03439774364233017,
                    0.03058236464858055,
                    0.09909503906965256,
                    0.03901803493499756,
                    0.07121556997299194,
                    0.0786089077591896
                ],
                [
                    0.040014926344156265,
                    -0.14333899319171906,
                    0.062037210911512375,
                    0.009288530796766281,
                    -0.05904817953705788,
                    -0.07781276106834412,
                    0.04401599243283272,
                    0.06867528706789017
                ],
                [
                    0.16953815519809723,
                    -0.01040705107152462,
                    0.04178435355424881,
                    0.005305538885295391,
                    -0.025770096108317375,
                    -0.12618036568164825,
                    -0.007988879457116127,
                    -0.052537836134433746
                ],
                [
                    0.005670011043548584,
                    -0.10190406441688538,
                    0.05994955077767372,
                    0.11164906620979309,
                    -0.04026923328638077,
                    0.06856811791658401,
                    0.05563510209321976,
                    0.1003955528140068
                ],
                [
                    -0.07098985463380814,
                    -0.07866644114255905,
                    0.10185500234365463,
                    -0.07769519090652466,
                    -0.031039945781230927,
                    -0.06909608840942383,
                    0.1167011633515358,
                    0.012398086488246918
                ],
                [
                    -0.03372490406036377,
                    0.07329314202070236,
                    0.15438032150268555,
                    0.012228978797793388,
                    -0.059796229004859924,
                    0.06849569827318192,
                    0.13671661913394928,
                    -0.1056465283036232
                ],
                [
                    0.1362832486629486,
                    -0.07370924204587936,
                    0.037203215062618256,
                    -0.038678769022226334,
                    0.015825824812054634,
                    0.07105817645788193,
                    -0.10775011777877808,
                    -0.11054906994104385
                ],
                [
                    0.05580815300345421,
                    -0.1752951294183731,
                    -0.014132672920823097,
                    0.19300416111946106,
                    0.06050390005111694,
                    -0.12705837190151215,
                    0.05475889891386032,
                    -0.01707647740840912
                ],
                [
                    -0.08232419192790985,
                    0.1075160801410675,
                    0.06226610392332077,
                    -0.07687728106975555,
                    -0.03813765570521355,
                    -0.0223244559019804,
                    -0.09951484948396683,
                    -0.11157872527837753
                ],
                [
                    0.10963655263185501,
                    -0.1700431853532791,
                    0.0020745573565363884,
                    0.057541005313396454,
                    -0.06658818572759628,
                    0.03931545466184616,
                    -0.006413035560399294,
                    -0.001888871192932129
                ],
                [
                    0.02975371666252613,
                    0.04227275401353836,
                    -0.09016892313957214,
                    -0.006169131025671959,
                    0.012291288003325462,
                    -0.10687863826751709,
                    -0.13106073439121246,
                    -0.09831272810697556
                ],
                [
                    0.01632029376924038,
                    -0.04447216913104057,
                    0.11326682567596436,
                    0.10489361733198166,
                    0.0332612469792366,
                    0.06274741142988205,
                    0.08900520205497742,
                    0.08453545719385147
                ],
                [
                    -0.09234113991260529,
                    -0.10850144177675247,
                    -0.032283905893564224,
                    -0.12651470303535461,
                    -0.08093274384737015,
                    0.12093165516853333,
                    -0.022404290735721588,
                    0.030919067561626434
                ],
                [
                    -0.04334479942917824,
                    -0.05598481744527817,
                    0.028978757560253143,
                    0.06948668509721756,
                    0.05306096002459526,
                    -0.048105936497449875,
                    0.12207092344760895,
                    -0.10486820340156555
                ],
                [
                    0.028085485100746155,
                    -0.07932765036821365,
                    0.07709348946809769,
                    0.002275343518704176,
                    0.08568423986434937,
                    -0.02984812669456005,
                    0.11469441652297974,
                    0.058117352426052094
                ],
                [
                    0.0262020081281662,
                    0.0524064339697361,
                    0.07040818780660629,
                    -0.04969386011362076,
                    0.10157119482755661,
                    -0.17327763140201569,
                    -0.0009963291231542826,
                    0.0990985557436943
                ],
                [
                    0.12569957971572876,
                    -0.04065047949552536,
                    0.07865718752145767,
                    0.09919479489326477,
                    -0.06965935230255127,
                    0.09334175288677216,
                    -0.013856064528226852,
                    -0.06876327097415924
                ],
                [
                    0.15604187548160553,
                    -0.0974482074379921,
                    -0.1661200225353241,
                    0.04905915632843971,
                    -0.10190474987030029,
                    -0.12181665748357773,
                    -0.07579048722982407,
                    -0.025902293622493744
                ],
                [
                    0.03185470774769783,
                    0.013681231066584587,
                    -0.07837028801441193,
                    0.07115438580513,
                    -0.01997971348464489,
                    -0.1600484997034073,
                    -0.03412958234548569,
                    0.1169387474656105
                ],
                [
                    0.025016622617840767,
                    0.1368655413389206,
                    0.04303393512964249,
                    -0.011311870999634266,
                    -0.06814824789762497,
                    -0.07014761120080948,
                    0.03934026509523392,
                    -0.07403437793254852
                ],
                [
                    0.06440268456935883,
                    -0.09025721251964569,
                    0.08849166333675385,
                    0.09342679381370544,
                    0.004527275916188955,
                    -0.008983162231743336,
                    -0.0990176573395729,
                    0.09815960377454758
                ],
                [
                    -0.04470277950167656,
                    0.1287994533777237,
                    0.03477339819073677,
                    -0.1152162030339241,
                    0.05087940767407417,
                    0.168619766831398,
                    -0.008455817587673664,
                    0.09298194199800491
                ],
                [
                    -0.06328605860471725,
                    0.11964480578899384,
                    0.08095551282167435,
                    -0.0012938028667122126,
                    -0.10339434444904327,
                    -0.03452135622501373,
                    0.018344486132264137,
                    -0.10981366038322449
                ],
                [
                    0.06316676735877991,
                    -0.15946845710277557,
                    -0.02942984364926815,
                    0.04436167702078819,
                    0.0027834544889628887,
                    -0.15368393063545227,
                    0.007764918729662895,
                    0.0820944681763649
                ],
                [
                    0.08726632595062256,
                    -0.06557366997003555,
                    -0.13077515363693237,
                    -0.05627022683620453,
                    -0.014235488139092922,
                    -0.07479927688837051,
                    -0.05467238649725914,
                    -0.03202131390571594
                ],
                [
                    -0.05027465522289276,
                    -0.03503461927175522,
                    0.0004547666758298874,
                    -0.038275424391031265,
                    -0.065887950360775,
                    -0.1268145740032196,
                    0.07447182387113571,
                    -0.07998231053352356
                ],
                [
                    0.10691320896148682,
                    0.0456782691180706,
                    -0.08777044713497162,
                    0.09655095636844635,
                    -0.0461750328540802,
                    -0.17317882180213928,
                    -0.07244715839624405,
                    -0.1199612244963646
                ],
                [
                    0.04786207526922226,
                    0.10340757668018341,
                    0.0899726077914238,
                    0.006846325937658548,
                    0.10516700893640518,
                    0.13124030828475952,
                    -0.04375670105218887,
                    -0.07123734056949615
                ],
                [
                    -0.06943188607692719,
                    0.11273764818906784,
                    -0.028619293123483658,
                    0.05080777406692505,
                    -0.09662222117185593,
                    0.06773549318313599,
                    -0.10214858502149582,
                    -0.004569247364997864
                ],
                [
                    -0.11436670273542404,
                    0.16265639662742615,
                    0.04660642519593239,
                    -0.0815817192196846,
                    -0.058716777712106705,
                    0.17158475518226624,
                    0.0157488863915205,
                    -0.015048347413539886
                ],
                [
                    0.11660643666982651,
                    0.091010183095932,
                    0.14362411201000214,
                    0.020497288554906845,
                    0.06891573965549469,
                    -0.024867257103323936,
                    -0.059257667511701584,
                    -0.0558747723698616
                ],
                [
                    -0.001099882647395134,
                    -0.03385382518172264,
                    -0.04859258979558945,
                    -0.011935245245695114,
                    0.052726373076438904,
                    -0.11581116169691086,
                    0.021664349362254143,
                    0.1186467781662941
                ],
                [
                    -0.01803148165345192,
                    0.056209005415439606,
                    0.06162237375974655,
                    0.0024496137630194426,
                    -0.11975910514593124,
                    -0.021763121709227562,
                    0.037710681557655334,
                    0.02146599441766739
                ],
                [
                    -0.02621661126613617,
                    -0.11590273678302765,
                    -0.01643882319331169,
                    0.01145101711153984,
                    0.08685165643692017,
                    -0.15711534023284912,
                    -0.1246718317270279,
                    -0.015229567885398865
                ],
                [
                    0.07972928136587143,
                    -0.12239047139883041,
                    0.02127823606133461,
                    0.027907852083444595,
                    0.09346529841423035,
                    0.0464208610355854,
                    0.042246997356414795,
                    -0.12217217683792114
                ],
                [
                    -0.06785030663013458,
                    0.11882317066192627,
                    0.027243809774518013,
                    -0.02929859794676304,
                    0.020613649860024452,
                    0.11790983378887177,
                    0.01756194792687893,
                    -0.09098006039857864
                ],
                [
                    -0.08818592876195908,
                    -0.11747024208307266,
                    -0.06227962300181389,
                    -0.02711406722664833,
                    0.07731320708990097,
                    0.08520156890153885,
                    -0.09654418379068375,
                    0.020328499376773834
                ],
                [
                    -0.04790434241294861,
                    0.06679701805114746,
                    -0.03430764749646187,
                    -0.09804646670818329,
                    -0.10309167206287384,
                    0.11301659047603607,
                    -0.02466246671974659,
